-4.931770563125610352e-01 3.276312112808227539e+00 -2.105839014053344727e+00 2.557449638843536377e-01 3.062716007232666016e+00 -6.732152104377746582e-01 -4.378463625907897949e-01 -1.042354926466941833e-01 2.104943275451660156e+00 -2.990622222423553467e-01 -1.755246639251708984e+00 1.574169397354125977e+00
-1.418236017227172852e+00 2.095297574996948242e+00 -1.996686339378356934e+00 -5.742528438568115234e-01 2.821377277374267578e+00 1.237459659576416016e+00 -4.644919633865356445e-01 -9.170327782630920410e-01 2.543747901916503906e+00 2.013515949249267578e+00 3.001739025115966797e+00 2.261061906814575195e+00
2.115987062454223633e+00 1.508449167013168335e-01 -1.007567286491394043e+00 -2.305193185806274414e+00 1.853510439395904541e-01 1.383529424667358398e+00 7.535601854324340820e-01 -2.299529790878295898e+00 -7.457361221313476562e-01 -8.536570072174072266e-01 1.829092502593994141e+00 7.184285521507263184e-01
-9.261301159858703613e-01 -8.505873680114746094e-01 -1.303942084312438965e+00 -3.809471368789672852e+00 -1.969793081283569336e+00 9.168843924999237061e-02 -2.174292318522930145e-02 8.854362964630126953e-01 1.478228926658630371e+00 -8.239327073097229004e-01 2.155939102172851562e+00 1.398663222789764404e-01
5.405665040016174316e-01 -1.705751299858093262e+00 -3.704413771629333496e-01 -1.339525938034057617e+00 -1.296968698501586914e+00 -1.153060078620910645e+00 -1.871987104415893555e+00 7.159832715988159180e-01 -2.620111942291259766e+00 8.823643326759338379e-01 6.452215313911437988e-01 1.008724093437194824e+00
8.492622971534729004e-01 -6.762129664421081543e-01 -7.651722431182861328e-01 -2.730630159378051758e+00 -8.079539537429809570e-01 -4.064672589302062988e-01 1.446507096290588379e+00 1.645352244377136230e+00 -1.334007531404495239e-01 1.747543364763259888e-01 2.210189819335937500e+00 1.327794194221496582e+00
3.580709934234619141e+00 1.021969795227050781e+00 -1.217491269111633301e+00 2.619538605213165283e-01 3.466484546661376953e+00 -2.309457063674926758e+00 1.056527733802795410e+00 3.239148855209350586e+00 2.363045215606689453e+00 -2.483759641647338867e+00 -9.458664655685424805e-01 9.839840233325958252e-02
1.850732088088989258e+00 -2.075357437133789062e+00 1.222803115844726562e+00 3.106442213058471680e+00 7.551298141479492188e-01 -1.940495610237121582e+00 8.398060798645019531e-01 -3.507559001445770264e-01 5.309701561927795410e-01 -2.508486509323120117e+00 -5.602781176567077637e-01 2.700002670288085938e+00
2.523768544197082520e-01 1.096716165542602539e+00 -9.556946754455566406e-01 -3.817623257637023926e-01 -2.464454650878906250e+00 -2.087061107158660889e-02 -6.790761947631835938e-01 -8.062429428100585938e-01 1.629234910011291504e+00 1.495517939329147339e-01 9.277131557464599609e-01 3.201058149337768555e+00
1.573418855667114258e+00 -7.411780953407287598e-01 1.070859551429748535e+00 -4.258116722106933594e+00 5.550156235694885254e-01 8.015449643135070801e-01 2.916003763675689697e-01 -2.147112607955932617e+00 1.375156641006469727e+00 1.704820245504379272e-01 9.928274750709533691e-01 7.636796832084655762e-01
9.368207454681396484e-01 2.709973156452178955e-01 -1.351172804832458496e+00 -4.001602828502655029e-01 -1.784180402755737305e+00 -1.474430680274963379e+00 -1.515267729759216309e+00 6.818217635154724121e-01 -1.018346786499023438e+00 1.617183908820152283e-03 2.748558521270751953e-01 2.046552896499633789e+00
5.765605568885803223e-01 -3.194476604461669922e+00 -8.791704475879669189e-02 -2.879669904708862305e+00 7.195462584495544434e-01 -9.070724844932556152e-01 7.884187698364257812e-01 7.321941852569580078e-01 -3.862989246845245361e-01 4.439139664173126221e-01 2.703254222869873047e-01 7.233906388282775879e-01
-3.060453653335571289e+00 -6.125918626785278320e-01 3.315428018569946289e+00 -4.473287165164947510e-01 1.197665095329284668e+00 9.966447353363037109e-01 2.919798344373703003e-02 1.698810219764709473e+00 -2.094544172286987305e+00 3.399306535720825195e+00 -2.881734669208526611e-01 -2.671954631805419922e-01
1.812872290611267090e+00 -4.099534749984741211e-01 3.252153873443603516e+00 2.154624223709106445e+00 4.225074946880340576e-01 2.038537740707397461e+00 -7.920160293579101562e-01 8.075983077287673950e-02 2.565785646438598633e+00 -6.456505656242370605e-01 6.396546363830566406e-01 7.481894493103027344e-01
-2.139514684677124023e+00 7.786298394203186035e-01 -1.608448743820190430e+00 1.105121850967407227e+00 7.747489213943481445e-01 3.351187229156494141e+00 1.326865792274475098e+00 -3.441095352172851562e+00 2.368602991104125977e+00 -1.150508075952529907e-01 -5.753445625305175781e-01 -2.265034914016723633e+00
-1.498826980590820312e+00 2.019742250442504883e+00 3.106448799371719360e-03 1.552197933197021484e+00 -5.958284735679626465e-01 4.665438532829284668e-01 9.687432646751403809e-01 -3.067173004150390625e+00 5.321943759918212891e-01 -7.827210426330566406e-01 -2.277791947126388550e-01 -1.788348793983459473e+00
-1.721491456031799316e+00 7.263498306274414062e-01 2.727870345115661621e-01 3.047545909881591797e+00 -6.105831861495971680e-01 1.413129568099975586e+00 9.782402515411376953e-01 -9.867069721221923828e-01 -6.265048384666442871e-01 1.991258189082145691e-02 -2.304682731628417969e+00 -1.148674011230468750e+00
-3.217529058456420898e-01 -1.588616073131561279e-01 1.600599408149719238e+00 4.170250892639160156e+00 5.357216596603393555e-01 1.582170009613037109e+00 -1.072632335126399994e-02 -1.199015527963638306e-01 -2.160906553268432617e+00 1.488578677177429199e+00 1.699475169181823730e+00 5.169070959091186523e-01
1.818842291831970215e-01 -1.483301877975463867e+00 2.175647258758544922e+00 -1.048236250877380371e+00 1.744860053062438965e+00 5.867374539375305176e-01 -2.772306203842163086e+00 2.191644430160522461e+00 -1.625517129898071289e+00 2.766102075576782227e+00 2.784933149814605713e-01 -7.764794230461120605e-01
-5.465196967124938965e-01 8.417540192604064941e-01 1.517481088638305664e+00 2.288969039916992188e+00 1.638104319572448730e+00 1.208341240882873535e+00 -2.766047239303588867e+00 2.402642011642456055e+00 -8.398394584655761719e-01 -1.030078530311584473e+00 1.040369391441345215e+00 6.238314509391784668e-01
-1.408478975296020508e+00 4.852080047130584717e-01 -2.601884603500366211e+00 2.475474357604980469e+00 -1.002812266349792480e+00 3.264424800872802734e+00 4.722141027450561523e-01 -2.810753822326660156e+00 -1.089824557304382324e+00 -1.223079562187194824e+00 -1.194132447242736816e+00 3.160678744316101074e-01
5.228341221809387207e-01 2.448766231536865234e-01 3.758965805172920227e-02 1.430455297231674194e-01 -1.237381845712661743e-01 2.447828769683837891e+00 1.293112993240356445e+00 -7.832617163658142090e-01 7.473456263542175293e-01 -1.314426541328430176e+00 -1.666529059410095215e+00 -1.605897665023803711e+00
6.125697493553161621e-01 -3.648701310157775879e-01 -5.043426752090454102e-01 2.686954021453857422e+00 -6.171254515647888184e-01 3.004605293273925781e+00 -2.591857314109802246e-02 -2.969247579574584961e+00 -3.074793100357055664e+00 1.538594812154769897e-01 -3.955734014511108398e+00 -4.009339809417724609e+00
-2.635627053678035736e-02 2.276177644729614258e+00 1.164657235145568848e+00 -4.492687582969665527e-01 2.278131246566772461e-01 1.592023730278015137e+00 2.169979572296142578e+00 -1.053443998098373413e-01 1.090971350669860840e+00 5.658288598060607910e-01 -1.849916428327560425e-01 -3.815374612808227539e+00
